<?xml version="1.0"?>
<opencv_storage>
<stage9>
  <maxWeakCount>15</maxWeakCount>
  <stageThreshold>-8.7589907646179199e-01</stageThreshold>
  <weakClassifiers>
    <_>
      <internalNodes>
        0 -1 559193 -1.5074947848916054e-02</internalNodes>
      <leafValues>
        -4.7465437650680542e-01 5.9425193071365356e-01</leafValues></_>
    <_>
      <internalNodes>
        0 -1 507774 8.6467675864696503e-03</internalNodes>
      <leafValues>
        -2.2745741903781891e-01 5.9365922212600708e-01</leafValues></_>
    <_>
      <internalNodes>
        0 -1 618682 -1.9828903023153543e-03</internalNodes>
      <leafValues>
        -6.5518188476562500e-01 2.4472640454769135e-01</leafValues></_>
    <_>
      <internalNodes>
        0 -1 618061 -6.6283876076340675e-03</internalNodes>
      <leafValues>
        4.8299324512481689e-01 -2.8143504261970520e-01</leafValues></_>
    <_>
      <internalNodes>
        0 -1 436110 1.6508052358403802e-03</internalNodes>
      <leafValues>
        -1.9093485176563263e-01 7.6669263839721680e-01</leafValues></_>
    <_>
      <internalNodes>
        0 -1 439284 1.7719678580760956e-03</internalNodes>
      <leafValues>
        -1.4590224623680115e-01 7.0290023088455200e-01</leafValues></_>
    <_>
      <internalNodes>
        0 -1 120897 3.9551145164296031e-04</internalNodes>
      <leafValues>
        -5.3084486722946167e-01 2.6379120349884033e-01</leafValues></_>
    <_>
      <internalNodes>
        0 -1 529845 -2.8267097659409046e-03</internalNodes>
      <leafValues>
        6.4081412553787231e-01 -2.1908193826675415e-01</leafValues></_>
    <_>
      <internalNodes>
        0 -1 547041 1.2672974662564229e-05</internalNodes>
      <leafValues>
        -2.0374457538127899e-01 5.8032488822937012e-01</leafValues></_>
    <_>
      <internalNodes>
        0 -1 201657 2.8068529441952705e-02</internalNodes>
      <leafValues>
        1.5983432531356812e-01 -8.0999541282653809e-01</leafValues></_>
    <_>
      <internalNodes>
        0 -1 343988 2.2913739085197449e-02</internalNodes>
      <leafValues>
        1.3825654983520508e-01 -8.3332437276840210e-01</leafValues></_>
    <_>
      <internalNodes>
        0 -1 547047 4.0875826380215585e-04</internalNodes>
      <leafValues>
        -2.4224852025508881e-01 5.4581516981124878e-01</leafValues></_>
    <_>
      <internalNodes>
        0 -1 480942 9.0535786002874374e-03</internalNodes>
      <leafValues>
        1.7691728472709656e-01 -6.8976527452468872e-01</leafValues></_>
    <_>
      <internalNodes>
        0 -1 385913 6.1134169809520245e-03</internalNodes>
      <leafValues>
        1.4151284098625183e-01 -7.3795908689498901e-01</leafValues></_>
    <_>
      <internalNodes>
        0 -1 385142 1.2429794296622276e-03</internalNodes>
      <leafValues>
        -7.5758075714111328e-01 1.4193181693553925e-01</leafValues></_></weakClassifiers></stage9>
</opencv_storage>
