<?xml version="1.0"?>
<opencv_storage>
<stage10>
  <maxWeakCount>17</maxWeakCount>
  <stageThreshold>-9.6991831064224243e-01</stageThreshold>
  <weakClassifiers>
    <_>
      <internalNodes>
        0 -1 336006 1.2879898713435978e-04</internalNodes>
      <leafValues>
        6.8316829204559326e-01 -4.2769856750965118e-02</leafValues></_>
    <_>
      <internalNodes>
        0 -1 507781 4.0244404226541519e-04</internalNodes>
      <leafValues>
        -2.3710465431213379e-01 5.1929140090942383e-01</leafValues></_>
    <_>
      <internalNodes>
        0 -1 537587 -2.3450613021850586e-02</internalNodes>
      <leafValues>
        -6.7221736907958984e-01 2.1157625317573547e-01</leafValues></_>
    <_>
      <internalNodes>
        0 -1 19024 -1.6348140314221382e-02</internalNodes>
      <leafValues>
        5.6088316440582275e-01 -2.5466609001159668e-01</leafValues></_>
    <_>
      <internalNodes>
        0 -1 67337 -1.1218304932117462e-01</internalNodes>
      <leafValues>
        5.4590189456939697e-01 -2.3195399343967438e-01</leafValues></_>
    <_>
      <internalNodes>
        0 -1 188488 1.6612511128187180e-02</internalNodes>
      <leafValues>
        -1.0893913358449936e-01 7.8970444202423096e-01</leafValues></_>
    <_>
      <internalNodes>
        0 -1 460172 1.0057406499981880e-02</internalNodes>
      <leafValues>
        1.7225906252861023e-01 -6.2657368183135986e-01</leafValues></_>
    <_>
      <internalNodes>
        0 -1 280790 6.2897452153265476e-03</internalNodes>
      <leafValues>
        -1.7158775031566620e-01 6.8068695068359375e-01</leafValues></_>
    <_>
      <internalNodes>
        0 -1 309105 -8.5503153968602419e-04</internalNodes>
      <leafValues>
        6.0815006494522095e-01 -2.2434557974338531e-01</leafValues></_>
    <_>
      <internalNodes>
        0 -1 484559 2.5633140467107296e-05</internalNodes>
      <leafValues>
        -7.7676528692245483e-01 1.8790832161903381e-01</leafValues></_>
    <_>
      <internalNodes>
        0 -1 332938 1.2170642614364624e-02</internalNodes>
      <leafValues>
        7.9741127789020538e-02 -9.4943410158157349e-01</leafValues></_>
    <_>
      <internalNodes>
        0 -1 310760 -3.5618930123746395e-03</internalNodes>
      <leafValues>
        7.6261234283447266e-01 -1.6669511795043945e-01</leafValues></_>
    <_>
      <internalNodes>
        0 -1 523481 -6.0485281050205231e-02</internalNodes>
      <leafValues>
        4.1861626505851746e-01 -2.4820268154144287e-01</leafValues></_>
    <_>
      <internalNodes>
        0 -1 618664 1.0037724860012531e-03</internalNodes>
      <leafValues>
        2.4130953848361969e-01 -4.9599933624267578e-01</leafValues></_>
    <_>
      <internalNodes>
        0 -1 596419 -1.3450742699205875e-03</internalNodes>
      <leafValues>
        -6.5055233240127563e-01 1.6259038448333740e-01</leafValues></_>
    <_>
      <internalNodes>
        0 -1 248078 7.8729372471570969e-03</internalNodes>
      <leafValues>
        -2.1255554258823395e-01 6.1276125907897949e-01</leafValues></_>
    <_>
      <internalNodes>
        0 -1 179522 8.1036522984504700e-02</internalNodes>
      <leafValues>
        1.7137207090854645e-01 -7.7943331003189087e-01</leafValues></_></weakClassifiers></stage10>
</opencv_storage>
