<?xml version="1.0"?>
<opencv_storage>
<stage2>
  <maxWeakCount>10</maxWeakCount>
  <stageThreshold>-1.2768779993057251e+00</stageThreshold>
  <weakClassifiers>
    <_>
      <internalNodes>
        0 -1 155217 7.3074981570243835e-02</internalNodes>
      <leafValues>
        -1.6081330180168152e-01 7.9976719617843628e-01</leafValues></_>
    <_>
      <internalNodes>
        0 -1 617930 -7.8627383336424828e-03</internalNodes>
      <leafValues>
        6.4846688508987427e-01 -2.5322818756103516e-01</leafValues></_>
    <_>
      <internalNodes>
        0 -1 389377 -3.9447426795959473e-02</internalNodes>
      <leafValues>
        5.1831007003784180e-01 -3.8705608248710632e-01</leafValues></_>
    <_>
      <internalNodes>
        0 -1 411439 2.9455474577844143e-03</internalNodes>
      <leafValues>
        -7.7326387166976929e-01 2.8726071119308472e-01</leafValues></_>
    <_>
      <internalNodes>
        0 -1 545575 5.2200052887201309e-03</internalNodes>
      <leafValues>
        -4.8423933982849121e-01 4.3914332985877991e-01</leafValues></_>
    <_>
      <internalNodes>
        0 -1 181887 -1.9262126879766583e-03</internalNodes>
      <leafValues>
        -8.7276768684387207e-01 2.3108032345771790e-01</leafValues></_>
    <_>
      <internalNodes>
        0 -1 507653 -3.1707272864878178e-04</internalNodes>
      <leafValues>
        4.2165914177894592e-01 -4.9563145637512207e-01</leafValues></_>
    <_>
      <internalNodes>
        0 -1 179717 1.1321287602186203e-01</internalNodes>
      <leafValues>
        2.0604720711708069e-01 -9.0758091211318970e-01</leafValues></_>
    <_>
      <internalNodes>
        0 -1 17613 -3.9385199546813965e-02</internalNodes>
      <leafValues>
        6.3490426540374756e-01 -3.1820553541183472e-01</leafValues></_>
    <_>
      <internalNodes>
        0 -1 557707 -2.0555052906274796e-03</internalNodes>
      <leafValues>
        2.5306612253189087e-01 -8.2230252027511597e-01</leafValues></_></weakClassifiers></stage2>
</opencv_storage>
