<?xml version="1.0"?>
<opencv_storage>
<stage8>
  <maxWeakCount>13</maxWeakCount>
  <stageThreshold>-6.8191105127334595e-01</stageThreshold>
  <weakClassifiers>
    <_>
      <internalNodes>
        0 -1 435267 5.5062221363186836e-03</internalNodes>
      <leafValues>
        5.2410101890563965e-01 -9.1397851705551147e-01</leafValues></_>
    <_>
      <internalNodes>
        0 -1 455905 2.6088386774063110e-02</internalNodes>
      <leafValues>
        -4.3144911527633667e-01 3.9018580317497253e-01</leafValues></_>
    <_>
      <internalNodes>
        0 -1 34713 7.0035345852375031e-03</internalNodes>
      <leafValues>
        -3.6265274882316589e-01 3.7441104650497437e-01</leafValues></_>
    <_>
      <internalNodes>
        0 -1 503062 3.7463188171386719e-02</internalNodes>
      <leafValues>
        -4.3551206588745117e-01 2.7424663305282593e-01</leafValues></_>
    <_>
      <internalNodes>
        0 -1 439284 1.3340178411453962e-03</internalNodes>
      <leafValues>
        -2.1649172902107239e-01 5.8554649353027344e-01</leafValues></_>
    <_>
      <internalNodes>
        0 -1 26669 -6.8771517835557461e-03</internalNodes>
      <leafValues>
        -5.9443551301956177e-01 2.0793004333972931e-01</leafValues></_>
    <_>
      <internalNodes>
        0 -1 254786 -6.4322547987103462e-03</internalNodes>
      <leafValues>
        5.6116127967834473e-01 -2.2930046916007996e-01</leafValues></_>
    <_>
      <internalNodes>
        0 -1 272504 1.5613223426043987e-02</internalNodes>
      <leafValues>
        1.9679121673107147e-01 -6.9124495983123779e-01</leafValues></_>
    <_>
      <internalNodes>
        0 -1 501661 -1.3601259328424931e-02</internalNodes>
      <leafValues>
        -9.3149191141128540e-01 8.8068723678588867e-02</leafValues></_>
    <_>
      <internalNodes>
        0 -1 305207 -8.1944400444626808e-03</internalNodes>
      <leafValues>
        3.9835456013679504e-01 -3.0940762162208557e-01</leafValues></_>
    <_>
      <internalNodes>
        0 -1 276740 -1.8109134398400784e-03</internalNodes>
      <leafValues>
        7.2235924005508423e-01 -2.1076241135597229e-01</leafValues></_>
    <_>
      <internalNodes>
        0 -1 436593 -5.1965638995170593e-03</internalNodes>
      <leafValues>
        -8.8139653205871582e-01 1.8013033270835876e-01</leafValues></_>
    <_>
      <internalNodes>
        0 -1 388876 1.3537812046706676e-03</internalNodes>
      <leafValues>
        -2.4014596641063690e-01 6.3165420293807983e-01</leafValues></_></weakClassifiers></stage8>
</opencv_storage>
