<?xml version="1.0"?>
<opencv_storage>
<stage1>
  <maxWeakCount>8</maxWeakCount>
  <stageThreshold>-1.1665021181106567e+00</stageThreshold>
  <weakClassifiers>
    <_>
      <internalNodes>
        0 -1 273670 1.1103342473506927e-01</internalNodes>
      <leafValues>
        -6.8488746881484985e-01 7.4655646085739136e-01</leafValues></_>
    <_>
      <internalNodes>
        0 -1 12675 -3.7318341434001923e-02</internalNodes>
      <leafValues>
        7.2369736433029175e-01 -3.6750313639640808e-01</leafValues></_>
    <_>
      <internalNodes>
        0 -1 125129 4.2563147842884064e-02</internalNodes>
      <leafValues>
        -4.4072219729423523e-01 6.9719439744949341e-01</leafValues></_>
    <_>
      <internalNodes>
        0 -1 438468 7.9686916433274746e-04</internalNodes>
      <leafValues>
        -7.4486017227172852e-01 3.7814825773239136e-01</leafValues></_>
    <_>
      <internalNodes>
        0 -1 521413 -2.4014681577682495e-02</internalNodes>
      <leafValues>
        4.7533527016639709e-01 -4.9741595983505249e-01</leafValues></_>
    <_>
      <internalNodes>
        0 -1 420617 -3.5456253681331873e-03</internalNodes>
      <leafValues>
        4.0774035453796387e-01 -5.0495851039886475e-01</leafValues></_>
    <_>
      <internalNodes>
        0 -1 443468 -7.9250916838645935e-02</internalNodes>
      <leafValues>
        6.5730690956115723e-01 -3.1349962949752808e-01</leafValues></_>
    <_>
      <internalNodes>
        0 -1 356920 8.5146185010671616e-03</internalNodes>
      <leafValues>
        -6.1916893720626831e-01 3.5586425662040710e-01</leafValues></_></weakClassifiers></stage1>
</opencv_storage>
