<?xml version="1.0"?>
<opencv_storage>
<stage0>
  <maxWeakCount>6</maxWeakCount>
  <stageThreshold>-1.6825786828994751e+00</stageThreshold>
  <weakClassifiers>
    <_>
      <internalNodes>
        0 -1 186761 7.9545110464096069e-02</internalNodes>
      <leafValues>
        -8.6470586061477661e-01 8.4339624643325806e-01</leafValues></_>
    <_>
      <internalNodes>
        0 -1 359300 5.4707136005163193e-03</internalNodes>
      <leafValues>
        -8.7169712781906128e-01 6.1475956439971924e-01</leafValues></_>
    <_>
      <internalNodes>
        0 -1 464223 -4.1944522410631180e-02</internalNodes>
      <leafValues>
        6.7770075798034668e-01 -6.7782336473464966e-01</leafValues></_>
    <_>
      <internalNodes>
        0 -1 283022 -1.1198567226529121e-02</internalNodes>
      <leafValues>
        6.9190245866775513e-01 -4.9274682998657227e-01</leafValues></_>
    <_>
      <internalNodes>
        0 -1 220338 7.6552927494049072e-02</internalNodes>
      <leafValues>
        -5.0494033098220825e-01 5.9616458415985107e-01</leafValues></_>
    <_>
      <internalNodes>
        0 -1 132216 1.3440106064081192e-02</internalNodes>
      <leafValues>
        -5.0950312614440918e-01 5.4468560218811035e-01</leafValues></_></weakClassifiers></stage0>
</opencv_storage>
