<?xml version="1.0"?>
<opencv_storage>
<stage5>
  <maxWeakCount>13</maxWeakCount>
  <stageThreshold>-1.0616151094436646e+00</stageThreshold>
  <weakClassifiers>
    <_>
      <internalNodes>
        0 -1 551987 -1.5064463019371033e-01</internalNodes>
      <leafValues>
        -7.8625953197479248e-01 5.5397951602935791e-01</leafValues></_>
    <_>
      <internalNodes>
        0 -1 473376 -3.4963663667440414e-02</internalNodes>
      <leafValues>
        3.9702320098876953e-01 -5.2175641059875488e-01</leafValues></_>
    <_>
      <internalNodes>
        0 -1 440183 -4.9893918912857771e-04</internalNodes>
      <leafValues>
        7.1822839975357056e-01 -3.0356782674789429e-01</leafValues></_>
    <_>
      <internalNodes>
        0 -1 387408 2.8680916875600815e-03</internalNodes>
      <leafValues>
        -7.9169255495071411e-01 2.2548617422580719e-01</leafValues></_>
    <_>
      <internalNodes>
        0 -1 14328 -4.5954212546348572e-02</internalNodes>
      <leafValues>
        4.3387418985366821e-01 -3.7927937507629395e-01</leafValues></_>
    <_>
      <internalNodes>
        0 -1 268053 3.4553118050098419e-02</internalNodes>
      <leafValues>
        1.6202819347381592e-01 -8.8488775491714478e-01</leafValues></_>
    <_>
      <internalNodes>
        0 -1 558356 -1.1313403956592083e-02</internalNodes>
      <leafValues>
        -6.6644829511642456e-01 2.2281119227409363e-01</leafValues></_>
    <_>
      <internalNodes>
        0 -1 460896 1.9127684645354748e-03</internalNodes>
      <leafValues>
        -2.2444348037242889e-01 8.7317681312561035e-01</leafValues></_>
    <_>
      <internalNodes>
        0 -1 460896 -1.2646017130464315e-03</internalNodes>
      <leafValues>
        7.9317241907119751e-01 -2.1943524479866028e-01</leafValues></_>
    <_>
      <internalNodes>
        0 -1 523354 2.1164081990718842e-03</internalNodes>
      <leafValues>
        2.2177143394947052e-01 -8.2856267690658569e-01</leafValues></_>
    <_>
      <internalNodes>
        0 -1 363071 -9.5127604436129332e-04</internalNodes>
      <leafValues>
        4.0550571680068970e-01 -3.9447435736656189e-01</leafValues></_>
    <_>
      <internalNodes>
        0 -1 220924 -7.5869769789278507e-03</internalNodes>
      <leafValues>
        7.8056418895721436e-01 -2.2449815273284912e-01</leafValues></_>
    <_>
      <internalNodes>
        0 -1 525762 1.4846466947346926e-03</internalNodes>
      <leafValues>
        -1.6812030971050262e-01 7.8498452901840210e-01</leafValues></_></weakClassifiers></stage5>
</opencv_storage>
