<?xml version="1.0"?>
<opencv_storage>
<stage16>
  <maxWeakCount>19</maxWeakCount>
  <stageThreshold>-1.1710969209671021e+00</stageThreshold>
  <weakClassifiers>
    <_>
      <internalNodes>
        0 -1 638808 -1.4242974575608969e-03</internalNodes>
      <leafValues>
        -3.5025382041931152e-01 5.5610972642898560e-01</leafValues></_>
    <_>
      <internalNodes>
        0 -1 390328 1.9045086810365319e-03</internalNodes>
      <leafValues>
        -6.0678511857986450e-01 2.3239362239837646e-01</leafValues></_>
    <_>
      <internalNodes>
        0 -1 414577 -1.5573399141430855e-02</internalNodes>
      <leafValues>
        -8.0022817850112915e-01 1.3585960865020752e-01</leafValues></_>
    <_>
      <internalNodes>
        0 -1 381968 1.0903568938374519e-02</internalNodes>
      <leafValues>
        1.0489501059055328e-01 -7.7908766269683838e-01</leafValues></_>
    <_>
      <internalNodes>
        0 -1 641652 -1.1457601794973016e-03</internalNodes>
      <leafValues>
        -6.6696399450302124e-01 1.4978554844856262e-01</leafValues></_>
    <_>
      <internalNodes>
        0 -1 467798 1.8800444900989532e-02</internalNodes>
      <leafValues>
        -4.0137633681297302e-01 2.7614217996597290e-01</leafValues></_>
    <_>
      <internalNodes>
        0 -1 469974 -1.4190552756190300e-03</internalNodes>
      <leafValues>
        -4.8743921518325806e-01 2.2491681575775146e-01</leafValues></_>
    <_>
      <internalNodes>
        0 -1 99462 -1.1457318905740976e-03</internalNodes>
      <leafValues>
        -6.0577958822250366e-01 1.9047740101814270e-01</leafValues></_>
    <_>
      <internalNodes>
        0 -1 481935 -3.0761049129068851e-03</internalNodes>
      <leafValues>
        -7.8225344419479370e-01 1.2981986999511719e-01</leafValues></_>
    <_>
      <internalNodes>
        0 -1 250021 3.0041940044611692e-03</internalNodes>
      <leafValues>
        -2.2677983343601227e-01 5.9729403257369995e-01</leafValues></_>
    <_>
      <internalNodes>
        0 -1 459625 1.5140869654715061e-02</internalNodes>
      <leafValues>
        1.1742693930864334e-01 -7.2744017839431763e-01</leafValues></_>
    <_>
      <internalNodes>
        0 -1 214926 -1.0569185018539429e-02</internalNodes>
      <leafValues>
        -8.3742648363113403e-01 1.1676555871963501e-01</leafValues></_>
    <_>
      <internalNodes>
        0 -1 485949 7.4017327278852463e-04</internalNodes>
      <leafValues>
        -1.8503701686859131e-01 6.2484216690063477e-01</leafValues></_>
    <_>
      <internalNodes>
        0 -1 36256 8.0353801604360342e-04</internalNodes>
      <leafValues>
        2.0518352091312408e-01 -5.7628220319747925e-01</leafValues></_>
    <_>
      <internalNodes>
        0 -1 545375 1.6286810860037804e-03</internalNodes>
      <leafValues>
        -1.7625851929187775e-01 6.6422355175018311e-01</leafValues></_>
    <_>
      <internalNodes>
        0 -1 71898 2.4127867072820663e-02</internalNodes>
      <leafValues>
        -4.5507678389549255e-01 2.7154415845870972e-01</leafValues></_>
    <_>
      <internalNodes>
        0 -1 414714 5.4478151723742485e-03</internalNodes>
      <leafValues>
        2.9762563109397888e-01 -3.6799111962318420e-01</leafValues></_>
    <_>
      <internalNodes>
        0 -1 417137 1.2322051916271448e-03</internalNodes>
      <leafValues>
        1.6255733370780945e-01 -6.9730019569396973e-01</leafValues></_>
    <_>
      <internalNodes>
        0 -1 264518 -3.1927723437547684e-02</internalNodes>
      <leafValues>
        -7.9446882009506226e-01 1.3041000068187714e-01</leafValues></_></weakClassifiers></stage16>
</opencv_storage>
