<?xml version="1.0"?>
<opencv_storage>
<stage4>
  <maxWeakCount>15</maxWeakCount>
  <stageThreshold>-1.2940201759338379e+00</stageThreshold>
  <weakClassifiers>
    <_>
      <internalNodes>
        0 -1 276358 8.2697104662656784e-03</internalNodes>
      <leafValues>
        5.6514787673950195e-01 -7.1812081336975098e-01</leafValues></_>
    <_>
      <internalNodes>
        0 -1 210639 -1.8865730613470078e-02</internalNodes>
      <leafValues>
        -7.0488822460174561e-01 3.2623621821403503e-01</leafValues></_>
    <_>
      <internalNodes>
        0 -1 440179 6.5502920188009739e-04</internalNodes>
      <leafValues>
        -2.9741826653480530e-01 7.0859414339065552e-01</leafValues></_>
    <_>
      <internalNodes>
        0 -1 463199 9.4669032841920853e-04</internalNodes>
      <leafValues>
        2.6573425531387329e-01 -7.3418450355529785e-01</leafValues></_>
    <_>
      <internalNodes>
        0 -1 17479 -1.7445702105760574e-02</internalNodes>
      <leafValues>
        7.1567457914352417e-01 -2.5824761390686035e-01</leafValues></_>
    <_>
      <internalNodes>
        0 -1 463646 1.0859544854611158e-03</internalNodes>
      <leafValues>
        -1.8410198390483856e-01 8.1659531593322754e-01</leafValues></_>
    <_>
      <internalNodes>
        0 -1 112849 7.3095664381980896e-02</internalNodes>
      <leafValues>
        2.7524417638778687e-01 -5.9608930349349976e-01</leafValues></_>
    <_>
      <internalNodes>
        0 -1 430381 1.3800985179841518e-02</internalNodes>
      <leafValues>
        -7.1157145500183105e-01 1.9882814586162567e-01</leafValues></_>
    <_>
      <internalNodes>
        0 -1 610844 1.2367347255349159e-02</internalNodes>
      <leafValues>
        -5.0015771389007568e-01 3.3772721886634827e-01</leafValues></_>
    <_>
      <internalNodes>
        0 -1 241083 -3.0085269361734390e-02</internalNodes>
      <leafValues>
        -9.3393355607986450e-01 1.3588227331638336e-01</leafValues></_>
    <_>
      <internalNodes>
        0 -1 461099 9.5969345420598984e-04</internalNodes>
      <leafValues>
        -6.2430512905120850e-01 1.8613518774509430e-01</leafValues></_>
    <_>
      <internalNodes>
        0 -1 280989 -4.5733913779258728e-02</internalNodes>
      <leafValues>
        6.7290669679641724e-01 -2.4719391763210297e-01</leafValues></_>
    <_>
      <internalNodes>
        0 -1 576762 1.1933129280805588e-02</internalNodes>
      <leafValues>
        -3.0768507719039917e-01 4.9977004528045654e-01</leafValues></_>
    <_>
      <internalNodes>
        0 -1 278882 -3.5093061160296202e-03</internalNodes>
      <leafValues>
        8.0586320161819458e-01 -1.8497230112552643e-01</leafValues></_>
    <_>
      <internalNodes>
        0 -1 219095 1.3034303672611713e-02</internalNodes>
      <leafValues>
        -1.9379520416259766e-01 6.5281236171722412e-01</leafValues></_></weakClassifiers></stage4>
</opencv_storage>
